
\data\
ngram 1=16

\1-grams:
-0.4573772	</s>
-99	<s>
-1.332438	down
-1.332438	eight
-1.332438	five
-1.332438	four
-1.332438	left
-1.332438	nine
-1.332438	one
-1.332438	right
-1.332438	seven
-1.332438	six
-1.332438	three
-1.332438	two
-1.332438	up
-1.332438	zero

\end\
